SVM-light Version V6.02
0 # kernel type
3 # kernel parameter -d 
1 # kernel parameter -g 
1 # kernel parameter -s 
1 # kernel parameter -r 
empty# kernel parameter -u 
110 # highest feature index 
20 # number of training documents 
18 # number of support vectors plus 1 
0.94892838 # threshold b, each following line is a SV (starting with alpha*y)
-0.01285503578594463479356502233486 1:1 6:1 18:1 21:1 35:1 42:1 52:1 62:1 67:1 73:1 74:1 76:1 78:1 83:1 #
-0.0099409692204436624768382202432804 1:1 6:1 18:1 22:1 36:1 42:1 48:1 65:1 71:1 73:1 74:1 76:1 80:1 83:1 #
-0.073891445584655254807948665529693 3:1 10:1 14:1 19:1 39:1 40:1 52:1 63:1 67:1 73:1 74:1 76:1 82:1 83:1 #
-0.0049014817023306476995170299915117 2:1 6:1 14:1 31:1 35:1 40:1 53:1 63:1 69:1 73:1 74:1 76:1 80:1 83:1 #
-0.03222469150553158856453705993772 5:1 15:1 25:1 38:1 41:1 66:1 67:1 72:1 74:1 76:1 78:1 #
0.073891445584655254807948665529693 5:1 6:1 17:1 29:1 39:1 41:1 50:1 64:1 67:1 72:1 74:1 76:1 82:1 83:1 #
0.073891445584655254807948665529693 3:1 6:1 14:1 25:1 38:1 40:1 48:1 63:1 67:1 73:1 74:1 76:1 82:1 83:1 #
0.073891445584655254807948665529693 3:1 6:1 17:1 32:1 39:1 40:1 52:1 63:1 67:1 73:1 74:1 76:1 82:1 83:1 #
0.073891445584655254807948665529693 3:1 6:1 15:1 19:1 39:1 41:1 52:1 66:1 71:1 72:1 75:1 76:1 81:1 83:1 #
0.073891445584655254807948665529693 5:1 18:1 32:1 39:1 40:1 63:1 67:1 73:1 74:1 76:1 78:1 83:1 #
-0.067500878252058943429503301558725 3:1 6:1 17:1 24:1 38:1 41:1 47:1 64:1 67:1 72:1 74:1 76:1 80:1 83:1 #
-0.053579457506798357224742090920699 4:1 6:1 14:1 25:1 38:1 40:1 50:1 63:1 67:1 73:1 74:1 76:1 81:1 83:1 #
-0.049813949787975500549386254078854 5:1 7:1 14:1 23:1 39:1 42:1 52:1 64:1 67:1 73:1 75:1 76:1 82:1 83:1 #
-0.029345040203558398622663005994582 5:1 15:1 22:1 36:1 40:1 63:1 67:1 73:1 74:1 76:1 78:1 83:1 #
-0.014583323155032589663049336081713 2:1 6:1 15:1 29:1 39:1 42:1 47:1 64:1 68:1 73:1 74:1 76:1 78:1 110:1 #
-0.013591784550007843940244711689047 2:1 6:1 15:1 22:1 36:1 43:1 50:1 66:1 67:1 72:1 74:1 76:1 79:1 83:1 #
-0.0072291706689388149711938957864277 2:1 6:1 18:1 22:1 36:1 40:1 54:1 61:1 67:1 72:1 74:1 76:1 80:1 83:1 #
