SVM-light Version V6.02
0 # kernel type
3 # kernel parameter -d 
1 # kernel parameter -g 
1 # kernel parameter -s 
1 # kernel parameter -r 
empty# kernel parameter -u 
103 # highest feature index 
20 # number of training documents 
14 # number of support vectors plus 1 
0.87915583 # threshold b, each following line is a SV (starting with alpha*y)
-0.033948460991899437333430000762746 2:1 6:1 17:1 24:1 38:1 42:1 50:1 64:1 71:1 73:1 74:1 76:1 82:1 83:1 #
-0.066982726099600417568602495066443 5:1 7:1 14:1 19:1 39:1 40:1 51:1 63:1 67:1 73:1 74:1 76:1 78:1 83:1 #
-0.0014563112522396756080139690325836 1:1 6:1 16:1 22:1 36:1 42:1 48:1 62:1 67:1 73:1 74:1 76:1 80:1 83:1 #
-0.0057277149393024666054752280786033 2:1 6:1 18:1 19:1 39:1 40:1 52:1 61:1 71:1 72:1 74:1 76:1 80:1 95:1 #
-0.067138351108229729624632398099493 3:1 6:1 18:1 29:1 39:1 40:1 51:1 61:1 67:1 72:1 74:1 76:1 80:1 83:1 #
0.071689109785333451907440860395582 3:1 6:1 18:1 20:1 37:1 40:1 51:1 63:1 71:1 73:1 74:1 76:1 82:1 83:1 #
0.071689109785333451907440860395582 3:1 6:1 15:1 25:1 38:1 40:1 48:1 63:1 68:1 73:1 74:1 76:1 80:1 #
0.071689109785333451907440860395582 4:1 7:1 18:1 29:1 39:1 41:1 51:1 66:1 67:1 72:1 74:1 76:1 81:1 83:1 #
0.071689109785333451907440860395582 5:1 10:1 17:1 19:1 39:1 40:1 47:1 63:1 67:1 73:1 74:1 76:1 80:1 83:1 #
-0.036834026557937708801215848097854 3:1 6:1 17:1 27:1 35:1 40:1 57:1 63:1 69:1 73:1 74:1 76:1 81:1 103:1 #
-0.017590107510480817998299585269706 4:1 6:1 15:1 21:1 35:1 40:1 57:1 63:1 67:1 73:1 74:1 77:1 80:1 83:1 #
-0.022641639215935989437600284190921 3:1 9:1 14:1 26:1 35:1 40:1 56:1 63:1 71:1 73:1 74:1 76:1 80:1 83:1 #
-0.034437101465707546654737569724603 5:1 6:1 15:1 22:1 36:1 41:1 47:1 66:1 67:1 72:1 74:1 76:1 80:1 83:1 #
