SVM-light Version V6.02
0 # kernel type
3 # kernel parameter -d 
1 # kernel parameter -g 
1 # kernel parameter -s 
1 # kernel parameter -r 
empty# kernel parameter -u 
83 # highest feature index 
20 # number of training documents 
13 # number of support vectors plus 1 
0.88598847 # threshold b, each following line is a SV (starting with alpha*y)
-0.036115520033035572455837325378525 4:1 7:1 17:1 22:1 36:1 41:1 50:1 62:1 67:1 73:1 74:1 76:1 82:1 #
-0.034253042947979282784043419951558 4:1 10:1 15:1 24:1 38:1 41:1 52:1 66:1 67:1 72:1 74:1 76:1 82:1 83:1 #
-0.054957765715758527536038968719367 5:1 6:1 16:1 22:1 36:1 40:1 57:1 63:1 67:1 73:1 74:1 76:1 82:1 83:1 #
-0.07275613459973628849297710985411 5:1 6:1 14:1 19:1 39:1 40:1 47:1 63:1 67:1 73:1 74:1 76:1 80:1 83:1 #
-0.025772025675313166986901691757339 5:1 6:1 18:1 26:1 35:1 40:1 49:1 63:1 71:1 73:1 74:1 76:1 81:1 83:1 #
0.07275613459973628849297710985411 4:1 8:1 15:1 20:1 37:1 40:1 51:1 63:1 67:1 73:1 74:1 76:1 82:1 83:1 #
0.07275613459973628849297710985411 4:1 6:1 18:1 22:1 36:1 40:1 49:1 63:1 67:1 73:1 74:1 77:1 80:1 83:1 #
0.07275613459973628849297710985411 5:1 10:1 14:1 32:1 39:1 40:1 51:1 63:1 67:1 73:1 74:1 76:1 82:1 83:1 #
0.07275613459973628849297710985411 4:1 8:1 14:1 29:1 39:1 40:1 50:1 63:1 67:1 73:1 74:1 76:1 82:1 #
-0.029073457886460540855466661014361 4:1 7:1 17:1 25:1 38:1 40:1 52:1 63:1 67:1 73:1 74:1 76:1 78:1 83:1 #
-0.028406220560270461356067173142037 4:1 6:1 17:1 33:1 35:1 40:1 54:1 63:1 67:1 73:1 74:1 76:1 80:1 #
-0.0096903724607928631157305332521901 1:1 6:1 17:1 20:1 37:1 42:1 50:1 64:1 67:1 72:1 74:1 76:1 82:1 83:1 #
