SVM-light Version V6.02
0 # kernel type
3 # kernel parameter -d 
1 # kernel parameter -g 
1 # kernel parameter -s 
1 # kernel parameter -r 
empty# kernel parameter -u 
103 # highest feature index 
20 # number of training documents 
18 # number of support vectors plus 1 
0.90146518 # threshold b, each following line is a SV (starting with alpha*y)
-0.039319927965949366677200771391654 3:1 11:1 14:1 19:1 39:1 42:1 55:1 64:1 67:1 73:1 75:1 76:1 80:1 83:1 #
-0.011667628232959635289911481947911 3:1 6:1 17:1 22:1 36:1 41:1 53:1 64:1 67:1 73:1 74:1 76:1 80:1 83:1 #
-0.040877320852422273367299254687168 3:1 6:1 17:1 27:1 35:1 40:1 57:1 63:1 69:1 73:1 74:1 76:1 81:1 103:1 #
-0.023338127334887378422356718488118 2:1 6:1 16:1 22:1 36:1 40:1 54:1 63:1 67:1 73:1 75:1 76:1 80:1 83:1 #
-0.017730969943679272815550973518839 3:1 6:1 14:1 21:1 35:1 40:1 50:1 63:1 67:1 73:1 74:1 76:1 82:1 83:1 #
0.072246927880899980412010563668446 3:1 6:1 18:1 20:1 37:1 40:1 51:1 63:1 71:1 73:1 74:1 76:1 82:1 83:1 #
0.072246927880899980412010563668446 4:1 7:1 18:1 29:1 39:1 41:1 51:1 66:1 67:1 72:1 74:1 76:1 81:1 83:1 #
0.072246927880899980412010563668446 5:1 9:1 18:1 19:1 39:1 40:1 52:1 63:1 71:1 73:1 74:1 76:1 80:1 83:1 #
0.072246927880899980412010563668446 4:1 6:1 15:1 32:1 39:1 40:1 52:1 63:1 67:1 73:1 74:1 76:1 81:1 83:1 #
0.072246927880899980412010563668446 4:1 10:1 18:1 22:1 36:1 40:1 59:1 63:1 67:1 73:1 74:1 76:1 80:1 83:1 #
-0.072246927880899980412010563668446 1:1 11:1 18:1 20:1 37:1 40:1 49:1 63:1 71:1 73:1 74:1 76:1 78:1 83:1 #
-0.045986049204152050495775228000639 4:1 6:1 15:1 21:1 35:1 40:1 57:1 63:1 67:1 73:1 74:1 77:1 80:1 83:1 #
-0.06348478557808276412366410568211 5:1 6:1 15:1 22:1 36:1 41:1 47:1 66:1 67:1 72:1 74:1 76:1 80:1 83:1 #
-0.030612451946889607246049536115606 2:1 10:1 15:1 27:1 35:1 40:1 56:1 63:1 67:1 73:1 74:1 76:1 80:1 83:1 #
-0.0459033227296168494513395330614 3:1 9:1 14:1 26:1 35:1 40:1 56:1 63:1 71:1 73:1 74:1 76:1 80:1 83:1 #
0.072246927880899980412010563668446 3:1 10:1 17:1 19:1 39:1 40:1 59:1 63:1 67:1 73:1 74:1 76:1 80:1 83:1 #
-0.042314055615860705905628691425591 1:1 10:1 16:1 24:1 38:1 42:1 59:1 64:1 67:1 73:1 74:1 76:1 82:1 83:1 #
