SVM-light Version V6.02
0 # kernel type
3 # kernel parameter -d 
1 # kernel parameter -g 
1 # kernel parameter -s 
1 # kernel parameter -r 
empty# kernel parameter -u 
97 # highest feature index 
20 # number of training documents 
12 # number of support vectors plus 1 
0.88300683 # threshold b, each following line is a SV (starting with alpha*y)
-0.0090098652049692504878430909798226 1:1 6:1 17:1 20:1 37:1 42:1 50:1 64:1 67:1 72:1 74:1 76:1 82:1 83:1 #
-0.014517323055394253800143289367952 2:1 6:1 14:1 19:1 39:1 42:1 52:1 64:1 67:1 72:1 74:1 76:1 80:1 83:1 #
-0.026376368791208644470902555667635 2:1 6:1 18:1 19:1 39:1 40:1 51:1 63:1 67:1 73:1 74:1 76:1 80:1 83:1 #
-0.013024187472794275521881246504563 5:1 6:1 15:1 27:1 35:1 40:1 48:1 63:1 67:1 73:1 74:1 76:1 80:1 83:1 #
0.073034522570984805600602385311504 4:1 6:1 15:1 32:1 39:1 40:1 52:1 63:1 67:1 73:1 74:1 76:1 81:1 83:1 #
0.073034522570984805600602385311504 4:1 8:1 14:1 29:1 39:1 40:1 50:1 63:1 67:1 73:1 74:1 76:1 82:1 #
-0.042665828046038599408174007976413 4:1 7:1 17:1 25:1 38:1 40:1 52:1 63:1 67:1 73:1 74:1 76:1 78:1 83:1 #
-0.023517104487228362302841944142529 4:1 6:1 17:1 33:1 35:1 40:1 54:1 63:1 67:1 73:1 74:1 76:1 80:1 #
-0.015055657454288802823971771260858 5:1 6:1 18:1 26:1 35:1 40:1 49:1 63:1 71:1 73:1 74:1 76:1 81:1 83:1 #
-0.00169994333811399121574037263116 2:1 6:1 17:1 20:1 37:1 40:1 50:1 63:1 67:1 73:1 74:1 76:1 78:1 83:1 #
-0.00020276729193344428855277916667887 5:1 15:1 20:1 37:1 41:1 64:1 67:1 72:1 74:1 76:1 78:1 83:1 #
