SVM-light Version V6.02
0 # kernel type
3 # kernel parameter -d 
1 # kernel parameter -g 
1 # kernel parameter -s 
1 # kernel parameter -r 
empty# kernel parameter -u 
83 # highest feature index 
20 # number of training documents 
16 # number of support vectors plus 1 
0.71609781 # threshold b, each following line is a SV (starting with alpha*y)
-0.054561526646175043109288083087449 2:1 6:1 18:1 19:1 39:1 40:1 51:1 63:1 67:1 73:1 74:1 76:1 80:1 83:1 #
-0.073303905015093193120456760425441 4:1 10:1 16:1 22:1 36:1 40:1 48:1 63:1 67:1 73:1 74:1 76:1 80:1 83:1 #
-0.017685316912234693570438182064208 4:1 6:1 15:1 22:1 36:1 41:1 54:1 66:1 67:1 73:1 74:1 76:1 79:1 83:1 #
-0.065159981141000883342329075276211 5:1 6:1 16:1 22:1 36:1 40:1 57:1 63:1 67:1 73:1 74:1 76:1 82:1 83:1 #
-0.000673831869758227089590996161661 4:1 6:1 17:1 33:1 35:1 40:1 54:1 63:1 67:1 73:1 74:1 76:1 80:1 #
0.073303905015093193120456760425441 4:1 8:1 15:1 20:1 37:1 40:1 51:1 63:1 67:1 73:1 74:1 76:1 82:1 83:1 #
0.073303905015093193120456760425441 4:1 6:1 18:1 22:1 36:1 40:1 49:1 63:1 67:1 73:1 74:1 77:1 80:1 83:1 #
0.073303905015093193120456760425441 3:1 7:1 16:1 22:1 36:1 40:1 50:1 63:1 67:1 73:1 74:1 77:1 81:1 83:1 #
0.073303905015093193120456760425441 5:1 10:1 14:1 32:1 39:1 40:1 51:1 63:1 67:1 73:1 74:1 76:1 82:1 83:1 #
0.073303905015093193120456760425441 4:1 8:1 14:1 29:1 39:1 40:1 50:1 63:1 67:1 73:1 74:1 76:1 82:1 #
-0.027650679239543892590225127037229 5:1 6:1 18:1 26:1 35:1 40:1 49:1 63:1 71:1 73:1 74:1 76:1 81:1 83:1 #
-0.031547125232031673902621804472801 5:1 6:1 14:1 19:1 39:1 40:1 47:1 63:1 67:1 73:1 74:1 76:1 80:1 83:1 #
-0.05782651270353301314885996475823 4:1 7:1 17:1 25:1 38:1 40:1 52:1 63:1 67:1 73:1 74:1 76:1 78:1 83:1 #
-0.034227442975271867020570226713971 1:1 6:1 17:1 20:1 37:1 42:1 50:1 64:1 67:1 72:1 74:1 76:1 82:1 83:1 #
-0.0038832231014290390959387000435754 5:1 15:1 20:1 37:1 41:1 64:1 67:1 72:1 74:1 76:1 78:1 83:1 #
