SVM-light Version V6.02
0 # kernel type
3 # kernel parameter -d 
1 # kernel parameter -g 
1 # kernel parameter -s 
1 # kernel parameter -r 
empty# kernel parameter -u 
110 # highest feature index 
20 # number of training documents 
14 # number of support vectors plus 1 
1.0432512 # threshold b, each following line is a SV (starting with alpha*y)
-0.018056983828907406663955015346801 2:1 6:1 17:1 24:1 38:1 40:1 47:1 61:1 67:1 72:1 74:1 76:1 79:1 83:1 #
-0.072500193413953681331740597215685 5:1 15:1 22:1 36:1 40:1 63:1 67:1 73:1 74:1 76:1 78:1 83:1 #
-0.0085634064830499689174869715202476 4:1 10:1 15:1 24:1 38:1 41:1 52:1 66:1 67:1 72:1 74:1 76:1 82:1 83:1 #
-0.0026453020497494983409580981970066 2:1 6:1 15:1 29:1 39:1 42:1 47:1 64:1 68:1 73:1 74:1 76:1 78:1 110:1 #
0.072500193413953681331740597215685 3:1 10:1 15:1 24:1 38:1 40:1 55:1 61:1 67:1 72:1 74:1 76:1 78:1 83:1 #
0.072500193413953681331740597215685 5:1 6:1 18:1 29:1 39:1 40:1 51:1 63:1 67:1 73:1 74:1 76:1 80:1 83:1 #
0.072500193413953681331740597215685 3:1 6:1 15:1 22:1 36:1 40:1 54:1 63:1 67:1 73:1 74:1 76:1 80:1 83:1 #
-0.03212075378321773561074436997842 4:1 6:1 18:1 22:1 36:1 40:1 54:1 63:1 67:1 73:1 74:1 76:1 80:1 103:1 #
-0.015727562241294755496223700674818 2:1 6:1 14:1 31:1 35:1 40:1 53:1 63:1 69:1 73:1 74:1 76:1 80:1 83:1 #
-0.010302288714534360222763176295757 4:1 6:1 14:1 25:1 38:1 40:1 50:1 63:1 67:1 73:1 74:1 76:1 81:1 83:1 #
-0.0091228616396325009491041768683317 1:1 6:1 18:1 20:1 37:1 42:1 59:1 64:1 67:1 73:1 74:1 76:1 80:1 83:1 #
-0.031829196192311268176489136294549 3:1 6:1 17:1 24:1 38:1 41:1 47:1 64:1 67:1 72:1 74:1 76:1 80:1 83:1 #
-0.016632048524530870098336876594658 5:1 6:1 15:1 22:1 36:1 44:1 55:1 66:1 67:1 72:1 74:1 76:1 80:1 83:1 #
