SVM-light Version V6.02
0 # kernel type
3 # kernel parameter -d 
1 # kernel parameter -g 
1 # kernel parameter -s 
1 # kernel parameter -r 
empty# kernel parameter -u 
103 # highest feature index 
20 # number of training documents 
14 # number of support vectors plus 1 
0.95548406 # threshold b, each following line is a SV (starting with alpha*y)
-0.021479340695272790273673280125877 3:1 9:1 14:1 26:1 35:1 40:1 56:1 63:1 71:1 73:1 74:1 76:1 80:1 83:1 #
-0.036179494947633158985489387760026 5:1 6:1 15:1 22:1 36:1 41:1 47:1 66:1 67:1 72:1 74:1 76:1 80:1 83:1 #
-0.059479019544125009966162309638094 3:1 6:1 18:1 29:1 39:1 40:1 51:1 61:1 67:1 72:1 74:1 76:1 80:1 83:1 #
-0.016387278686836179858454798363709 3:1 6:1 14:1 21:1 35:1 40:1 50:1 63:1 67:1 73:1 74:1 76:1 82:1 83:1 #
-0.040434766957590170810554752733879 3:1 6:1 17:1 27:1 35:1 40:1 57:1 63:1 69:1 73:1 74:1 76:1 81:1 103:1 #
0.071689109785333451907440860395582 3:1 6:1 18:1 20:1 37:1 40:1 51:1 63:1 71:1 73:1 74:1 76:1 82:1 83:1 #
0.071689109785333451907440860395582 3:1 6:1 15:1 25:1 38:1 40:1 48:1 63:1 68:1 73:1 74:1 76:1 80:1 #
0.071689109785333451907440860395582 4:1 7:1 18:1 29:1 39:1 41:1 51:1 66:1 67:1 72:1 74:1 76:1 81:1 83:1 #
0.071689109785333451907440860395582 5:1 10:1 17:1 19:1 39:1 40:1 47:1 63:1 67:1 73:1 74:1 76:1 80:1 83:1 #
-0.050656377173991393170204844409454 1:1 11:1 18:1 20:1 37:1 40:1 49:1 63:1 71:1 73:1 74:1 76:1 78:1 83:1 #
-0.040311202189850799115777846282072 4:1 6:1 18:1 19:1 39:1 41:1 51:1 62:1 67:1 73:1 74:1 77:1 80:1 83:1 #
-0.000189164914808715101590327889447 2:1 9:1 14:1 20:1 37:1 40:1 55:1 62:1 67:1 73:1 74:1 76:1 80:1 83:1 #
-0.021639794031225591947054098795888 1:1 10:1 16:1 24:1 38:1 42:1 59:1 64:1 67:1 73:1 74:1 76:1 82:1 83:1 #
