SVM-light Version V6.02
0 # kernel type
3 # kernel parameter -d 
1 # kernel parameter -g 
1 # kernel parameter -s 
1 # kernel parameter -r 
empty# kernel parameter -u 
97 # highest feature index 
20 # number of training documents 
16 # number of support vectors plus 1 
0.61815802 # threshold b, each following line is a SV (starting with alpha*y)
-0.039901210836696468509110502509429 5:1 6:1 14:1 22:1 36:1 40:1 48:1 63:1 67:1 73:1 74:1 76:1 80:1 83:1 #
-0.041620684527735901658829220650659 5:1 6:1 15:1 27:1 35:1 40:1 48:1 63:1 67:1 73:1 74:1 76:1 80:1 83:1 #
-0.072489763236853368977286038443708 2:1 6:1 17:1 20:1 37:1 40:1 50:1 63:1 67:1 73:1 74:1 76:1 78:1 83:1 #
-0.016003681817588405467134293758136 1:1 6:1 18:1 21:1 35:1 42:1 52:1 62:1 67:1 73:1 74:1 76:1 78:1 83:1 #
-0.0046112750812371192110639128713956 1:1 6:1 16:1 24:1 38:1 42:1 49:1 62:1 67:1 73:1 74:1 76:1 80:1 83:1 #
0.072489763236853368977286038443708 4:1 8:1 14:1 29:1 39:1 40:1 50:1 63:1 67:1 73:1 74:1 76:1 82:1 #
0.072489763236853368977286038443708 4:1 8:1 16:1 19:1 39:1 40:1 51:1 63:1 67:1 73:1 74:1 76:1 81:1 83:1 #
0.072489763236853368977286038443708 3:1 6:1 14:1 25:1 38:1 40:1 48:1 63:1 67:1 73:1 74:1 76:1 82:1 83:1 #
0.072489763236853368977286038443708 3:1 6:1 17:1 32:1 39:1 40:1 52:1 63:1 67:1 73:1 74:1 76:1 82:1 83:1 #
0.072489763236853368977286038443708 3:1 6:1 15:1 19:1 39:1 41:1 52:1 66:1 71:1 72:1 75:1 76:1 81:1 83:1 #
-0.072489763236853368977286038443708 4:1 10:1 15:1 24:1 38:1 41:1 52:1 66:1 67:1 72:1 74:1 76:1 82:1 83:1 #
-0.038856798068643227939134021653445 4:1 7:1 17:1 22:1 36:1 41:1 50:1 62:1 67:1 73:1 74:1 76:1 82:1 #
-0.026372194953151233132171427087087 3:1 6:1 14:1 22:1 36:1 41:1 55:1 66:1 71:1 72:1 74:1 76:1 80:1 83:1 #
-0.0093114357648206597800610850867997 5:1 15:1 22:1 36:1 40:1 63:1 67:1 73:1 74:1 76:1 78:1 83:1 #
-0.040792034508858585062363033557631 2:1 6:1 14:1 31:1 35:1 40:1 53:1 63:1 69:1 73:1 74:1 76:1 80:1 83:1 #
