SVM-light Version V6.02
0 # kernel type
3 # kernel parameter -d 
1 # kernel parameter -g 
1 # kernel parameter -s 
1 # kernel parameter -r 
empty# kernel parameter -u 
110 # highest feature index 
20 # number of training documents 
21 # number of support vectors plus 1 
0.73692033 # threshold b, each following line is a SV (starting with alpha*y)
-0.013042319203762553839198723437676 2:1 6:1 15:1 22:1 36:1 43:1 50:1 66:1 67:1 72:1 74:1 76:1 79:1 83:1 #
-0.032643696248419361294335061529637 1:1 6:1 18:1 28:1 35:1 42:1 59:1 62:1 71:1 73:1 74:1 76:1 79:1 83:1 #
-0.015419964810509678015959522667799 4:1 17:1 22:1 36:1 43:1 64:1 71:1 72:1 74:1 76:1 78:1 83:1 #
-0.073045070546874091288458430426545 5:1 15:1 22:1 36:1 40:1 63:1 67:1 73:1 74:1 76:1 78:1 83:1 #
-0.044705667326978316966634707796402 4:1 10:1 15:1 24:1 38:1 41:1 52:1 66:1 67:1 72:1 74:1 76:1 82:1 83:1 #
0.073045070546874091288458430426545 3:1 6:1 17:1 32:1 39:1 40:1 52:1 63:1 67:1 73:1 74:1 76:1 82:1 83:1 #
0.073045070546874091288458430426545 3:1 6:1 16:1 19:1 39:1 42:1 51:1 64:1 67:1 72:1 74:1 76:1 82:1 83:1 #
0.073045070546874091288458430426545 3:1 6:1 15:1 19:1 39:1 41:1 52:1 66:1 71:1 72:1 75:1 76:1 81:1 83:1 #
0.073045070546874091288458430426545 5:1 18:1 32:1 39:1 40:1 63:1 67:1 73:1 74:1 76:1 78:1 83:1 #
0.073045070546874091288458430426545 3:1 10:1 15:1 24:1 38:1 40:1 55:1 61:1 67:1 72:1 74:1 76:1 78:1 83:1 #
-0.072635265382807609468862608537165 5:1 7:1 14:1 23:1 39:1 42:1 52:1 64:1 67:1 73:1 75:1 76:1 82:1 83:1 #
-0.073045070546874091288458430426545 3:1 6:1 17:1 24:1 38:1 41:1 47:1 64:1 67:1 72:1 74:1 76:1 80:1 83:1 #
-0.01888012289742365540368140841565 2:1 6:1 15:1 29:1 39:1 42:1 47:1 64:1 68:1 73:1 74:1 76:1 78:1 110:1 #
-0.041532648725885405738278421949872 4:1 6:1 14:1 25:1 38:1 40:1 50:1 63:1 67:1 73:1 74:1 76:1 81:1 83:1 #
-0.016904730710182988562273465049657 4:1 7:1 14:1 20:1 37:1 40:1 48:1 63:1 67:1 73:1 74:1 76:1 82:1 83:1 #
0.073045070546874091288458430426545 5:1 8:1 18:1 22:1 36:1 40:1 51:1 61:1 67:1 72:1 75:1 76:1 80:1 83:1 #
0.073045070546874091288458430426545 3:1 6:1 15:1 22:1 36:1 40:1 54:1 63:1 67:1 73:1 74:1 76:1 80:1 83:1 #
-0.073045070546874091288458430426545 5:1 6:1 15:1 22:1 36:1 44:1 55:1 66:1 67:1 72:1 74:1 76:1 80:1 83:1 #
-0.030133095814554422542386191707919 2:1 6:1 14:1 31:1 35:1 40:1 53:1 63:1 69:1 73:1 74:1 76:1 80:1 83:1 #
-0.0062827710669723845979262044636471 4:1 11:1 17:1 20:1 37:1 41:1 55:1 65:1 67:1 72:1 74:1 76:1 80:1 83:1 #
