SVM-light Version V6.02
0 # kernel type
3 # kernel parameter -d 
1 # kernel parameter -g 
1 # kernel parameter -s 
1 # kernel parameter -r 
empty# kernel parameter -u 
103 # highest feature index 
20 # number of training documents 
15 # number of support vectors plus 1 
1.1012292 # threshold b, each following line is a SV (starting with alpha*y)
-0.01554392769257540406202533489477 3:1 11:1 14:1 19:1 39:1 42:1 55:1 64:1 67:1 73:1 75:1 76:1 80:1 83:1 #
-0.068203569477637268625436206548329 3:1 6:1 17:1 27:1 35:1 40:1 57:1 63:1 69:1 73:1 74:1 76:1 81:1 103:1 #
-0.035609544807715214076448972946309 2:1 6:1 16:1 22:1 36:1 40:1 54:1 63:1 67:1 73:1 75:1 76:1 80:1 83:1 #
-0.053765665644126318933881947259579 4:1 6:1 15:1 21:1 35:1 40:1 57:1 63:1 67:1 73:1 74:1 77:1 80:1 83:1 #
-0.0088394527159754744671804616018562 5:1 6:1 15:1 22:1 36:1 41:1 47:1 66:1 67:1 72:1 74:1 76:1 80:1 83:1 #
0.072246927880899980412010563668446 4:1 6:1 15:1 32:1 39:1 40:1 52:1 63:1 67:1 73:1 74:1 76:1 81:1 83:1 #
0.072246927880899980412010563668446 3:1 6:1 17:1 20:1 37:1 40:1 50:1 63:1 67:1 73:1 74:1 76:1 82:1 83:1 #
0.072246927880899980412010563668446 3:1 6:1 18:1 27:1 35:1 40:1 54:1 63:1 67:1 73:1 74:1 76:1 80:1 103:1 #
0.072246927880899980412010563668446 5:1 11:1 15:1 32:1 39:1 40:1 52:1 63:1 67:1 73:1 74:1 76:1 78:1 83:1 #
-0.05590515873127381574203553782354 1:1 11:1 18:1 20:1 37:1 40:1 49:1 63:1 71:1 73:1 74:1 76:1 78:1 83:1 #
-0.0089012429033119185028954944982615 4:1 6:1 17:1 19:1 39:1 43:1 49:1 65:1 71:1 73:1 74:1 76:1 82:1 83:1 #
-0.015733135969638305934337196845263 2:1 6:1 14:1 20:1 37:1 41:1 47:1 64:1 67:1 73:1 74:1 76:1 82:1 83:1 #
-0.01781172970855973008985628780465 5:1 6:1 18:1 24:1 38:1 41:1 50:1 64:1 67:1 72:1 74:1 76:1 80:1 83:1 #
-0.0086742838727864469278161507759251 1:1 6:1 17:1 19:1 39:1 42:1 53:1 64:1 67:1 73:1 74:1 76:1 80:1 83:1 #
