SVM-light Version V6.02
0 # kernel type
3 # kernel parameter -d 
1 # kernel parameter -g 
1 # kernel parameter -s 
1 # kernel parameter -r 
empty# kernel parameter -u 
83 # highest feature index 
20 # number of training documents 
16 # number of support vectors plus 1 
0.76215293 # threshold b, each following line is a SV (starting with alpha*y)
-0.015500211294307104578638067948759 4:1 6:1 18:1 24:1 38:1 42:1 51:1 64:1 68:1 72:1 74:1 76:1 82:1 83:1 #
-0.07303452257098477784502676968259 5:1 6:1 14:1 19:1 39:1 40:1 47:1 63:1 67:1 73:1 74:1 76:1 80:1 83:1 #
-0.030906656984218239259121219220106 5:1 15:1 20:1 37:1 41:1 64:1 67:1 72:1 74:1 76:1 78:1 83:1 #
-0.0093517625954662036980025163757091 1:1 6:1 17:1 20:1 37:1 42:1 50:1 64:1 67:1 72:1 74:1 76:1 82:1 83:1 #
-0.027245415980862202481871392478752 2:1 6:1 18:1 19:1 39:1 40:1 51:1 63:1 67:1 73:1 74:1 76:1 80:1 83:1 #
0.07303452257098477784502676968259 5:1 10:1 14:1 32:1 39:1 40:1 51:1 63:1 67:1 73:1 74:1 76:1 82:1 83:1 #
0.07303452257098477784502676968259 5:1 6:1 16:1 29:1 39:1 41:1 52:1 64:1 67:1 72:1 74:1 77:1 80:1 83:1 #
0.07303452257098477784502676968259 4:1 6:1 15:1 32:1 39:1 40:1 52:1 63:1 67:1 73:1 74:1 76:1 81:1 83:1 #
0.07303452257098477784502676968259 4:1 8:1 14:1 29:1 39:1 40:1 50:1 63:1 67:1 73:1 74:1 76:1 82:1 #
-0.051214455534561408034388563237371 4:1 7:1 17:1 25:1 38:1 40:1 52:1 63:1 67:1 73:1 74:1 76:1 78:1 83:1 #
-0.019524180025860336795684446542509 4:1 6:1 17:1 33:1 35:1 40:1 54:1 63:1 67:1 73:1 74:1 76:1 80:1 #
-0.013107626142715463404830877891527 5:1 6:1 15:1 27:1 35:1 40:1 48:1 63:1 67:1 73:1 74:1 76:1 80:1 83:1 #
-0.014415122361562344999175167004068 5:1 6:1 18:1 26:1 35:1 40:1 49:1 63:1 71:1 73:1 74:1 76:1 81:1 83:1 #
-0.011604160808176656322077135996551 5:1 6:1 18:1 22:1 36:1 41:1 48:1 64:1 67:1 72:1 74:1 76:1 81:1 83:1 #
-0.026233975985224363552950066491576 2:1 6:1 14:1 19:1 39:1 42:1 52:1 64:1 67:1 72:1 74:1 76:1 80:1 83:1 #
